<?xml version="1.0"?>
<opencv_storage>
<cascade>
  <stageType>BOOST</stageType>
  <featureType>HAAR</featureType>
  <height>32</height>
  <width>32</width>
  <stageParams>
    <boostType>GAB</boostType>
    <minHitRate>9.9500000476837158e-01</minHitRate>
    <maxFalseAlarm>5.0000000000000000e-01</maxFalseAlarm>
    <weightTrimRate>9.4999998807907104e-01</weightTrimRate>
    <maxDepth>1</maxDepth>
    <maxWeakCount>100</maxWeakCount></stageParams>
  <featureParams>
    <maxCatCount>0</maxCatCount>
    <featSize>1</featSize>
    <mode>BASIC</mode></featureParams>
  <stageNum>18</stageNum>
  <stages>
    <!-- stage 0 -->
    <_>
      <maxWeakCount>5</maxWeakCount>
      <stageThreshold>-1.7298166751861572e+00</stageThreshold>
      <weakClassifiers>
        <_>
          <internalNodes>
            0 -1 15 -1.1119936406612396e-01</internalNodes>
          <leafValues>
            6.8750000000000000e-01 -8.6329585313796997e-01</leafValues></_>
        <_>
          <internalNodes>
            0 -1 67 1.8784769345074892e-03</internalNodes>
          <leafValues>
            -6.1207658052444458e-01 5.0755304098129272e-01</leafValues></_>
        <_>
          <internalNodes>
            0 -1 50 1.5011215582489967e-03</internalNodes>
          <leafValues>
            -4.1824910044670105e-01 4.7852200269699097e-01</leafValues></_>
        <_>
          <internalNodes>
            0 -1 11 -5.4800063371658325e-02</internalNodes>
          <leafValues>
            4.6494841575622559e-01 -4.7661262750625610e-01</leafValues></_>
        <_>
          <internalNodes>
            0 -1 58 2.9419069178402424e-03</internalNodes>
          <leafValues>
            -2.5635355710983276e-01 7.2392135858535767e-01</leafValues></_></weakClassifiers></_>
    <!-- stage 1 -->
    <_>
      <maxWeakCount>9</maxWeakCount>
      <stageThreshold>-1.5588046312332153e+00</stageThreshold>
      <weakClassifiers>
        <_>
          <internalNodes>
            0 -1 70 -2.4924915283918381e-02</internalNodes>
          <leafValues>
            3.1914892792701721e-01 -8.6894589662551880e-01</leafValues></_>
        <_>
          <internalNodes>
            0 -1 113 4.4326215982437134e-02</internalNodes>
          <leafValues>
            -6.7161655426025391e-01 1.2546442449092865e-01</leafValues></_>
        <_>
          <internalNodes>
            0 -1 56 1.5816710656508803e-03</internalNodes>
          <leafValues>
            -3.1353631615638733e-01 5.6920194625854492e-01</leafValues></_>
        <_>
          <internalNodes>
            0 -1 25 -1.4221656322479248e-01</internalNodes>
          <leafValues>
            6.9530016183853149e-01 -2.2223934531211853e-01</leafValues></_>
        <_>
          <internalNodes>
            0 -1 42 -1.3424260541796684e-03</internalNodes>
          <leafValues>
            7.7784383296966553e-01 -1.9716516137123108e-01</leafValues></_>
        <_>
          <internalNodes>
            0 -1 138 -4.6757399104535580e-05</internalNodes>
          <leafValues>
            -6.3085865974426270e-01 2.6922208070755005e-01</leafValues></_>
        <_>
          <internalNodes>
            0 -1 3 3.4708395833149552e-04</internalNodes>
          <leafValues>
            2.0773985981941223e-01 -7.9923295974731445e-01</leafValues></_>
        <_>
          <internalNodes>
            0 -1 102 2.2416780702769756e-03</internalNodes>
          <leafValues>
            -3.0065429210662842e-01 5.7578140497207642e-01</leafValues></_>
        <_>
          <internalNodes>
            0 -1 69 9.0317433932796121e-04</internalNodes>
          <leafValues>
            -2.1381008625030518e-01 6.7937839031219482e-01</leafValues></_></weakClassifiers></_>
    <!-- stage 2 -->
    <_>
      <maxWeakCount>8</maxWeakCount>
      <stageThreshold>-1.5972001552581787e+00</stageThreshold>
      <weakClassifiers>
        <_>
          <internalNodes>
            0 -1 14 -7.7352754771709442e-02</internalNodes>
          <leafValues>
            3.3333334326744080e-01 -8.6050897836685181e-01</leafValues></_>
        <_>
          <internalNodes>
            0 -1 98 -8.9483838528394699e-03</internalNodes>
          <leafValues>
            1.9778579473495483e-01 -5.8474946022033691e-01</leafValues></_>
        <_>
          <internalNodes>
            0 -1 0 4.8463101848028600e-05</internalNodes>
          <leafValues>
            1.4048229157924652e-01 -7.3265546560287476e-01</leafValues></_>
        <_>
          <internalNodes>
            0 -1 66 6.2700931448489428e-04</internalNodes>
          <leafValues>
            -3.4899073839187622e-01 3.7057378888130188e-01</leafValues></_>
        <_>
          <internalNodes>
            0 -1 35 -1.1260647326707840e-02</internalNodes>
          <leafValues>
            5.1502251625061035e-01 -2.7277481555938721e-01</leafValues></_>
        <_>
          <internalNodes>
            0 -1 43 6.8718837574124336e-03</internalNodes>
          <leafValues>
            -2.3362344503402710e-01 5.5343395471572876e-01</leafValues></_>
        <_>
          <internalNodes>
            0 -1 40 -1.8463283777236938e-03</internalNodes>
          <leafValues>
            5.9293961524963379e-01 -2.2947525978088379e-01</leafValues></_>
        <_>
          <internalNodes>
            0 -1 19 1.9562102854251862e-02</internalNodes>
          <leafValues>
            1.6347815096378326e-01 -9.3216896057128906e-01</leafValues></_></weakClassifiers></_>
    <!-- stage 3 -->
    <_>
      <maxWeakCount>6</maxWeakCount>
      <stageThreshold>-1.4517596960067749e+00</stageThreshold>
      <weakClassifiers>
        <_>
          <internalNodes>
            0 -1 121 1.8079712986946106e-02</internalNodes>
          <leafValues>
            -8.4902143478393555e-01 4.0740740299224854e-01</leafValues></_>
        <_>
          <internalNodes>
            0 -1 124 1.1082524433732033e-03</internalNodes>
          <leafValues>
            -5.1852536201477051e-01 3.4761279821395874e-01</leafValues></_>
        <_>
          <internalNodes>
            0 -1 8 -1.2627888470888138e-02</internalNodes>
          <leafValues>
            -6.4501994848251343e-01 2.0203159749507904e-01</leafValues></_>
        <_>
          <internalNodes>
            0 -1 9 -1.8359874957241118e-05</internalNodes>
          <leafValues>
            -6.4899760484695435e-01 1.9904971122741699e-01</leafValues></_>
        <_>
          <internalNodes>
            0 -1 10 2.3303523194044828e-03</internalNodes>
          <leafValues>
            2.2572773694992065e-01 -5.5632990598678589e-01</leafValues></_>
        <_>
          <internalNodes>
            0 -1 28 -8.3980478346347809e-02</internalNodes>
          <leafValues>
            -1. 1.3702531158924103e-01</leafValues></_></weakClassifiers></_>
    <!-- stage 4 -->
    <_>
      <maxWeakCount>7</maxWeakCount>
      <stageThreshold>-2.0528519153594971e+00</stageThreshold>
      <weakClassifiers>
        <_>
          <internalNodes>
            0 -1 99 -2.5178087875247002e-02</internalNodes>
          <leafValues>
            3.7269449679189215e-18 -8.6872589588165283e-01</leafValues></_>
        <_>
          <internalNodes>
            0 -1 101 -1.2852505315095186e-03</internalNodes>
          <leafValues>
            8.2098685204982758e-02 -6.2962675094604492e-01</leafValues></_>
        <_>
          <internalNodes>
            0 -1 1 -1.7718460410833359e-02</internalNodes>
          <leafValues>
            5.1311838626861572e-01 -2.8917041420936584e-01</leafValues></_>
        <_>
          <internalNodes>
            0 -1 146 4.1692030208650976e-05</internalNodes>
          <leafValues>
            1.8598163127899170e-01 -6.3490587472915649e-01</leafValues></_>
        <_>
          <internalNodes>
            0 -1 106 5.1729991100728512e-03</internalNodes>
          <leafValues>
            -2.1168503165245056e-01 5.3248381614685059e-01</leafValues></_>
        <_>
          <internalNodes>
            0 -1 17 1.3683893484994769e-04</internalNodes>
          <leafValues>
            2.3136022686958313e-01 -5.7027316093444824e-01</leafValues></_>
        <_>
          <internalNodes>
            0 -1 96 -7.1407186624128371e-05</internalNodes>
          <leafValues>
            2.7777561545372009e-01 -4.7164109349250793e-01</leafValues></_></weakClassifiers></_>
    <!-- stage 5 -->
    <_>
      <maxWeakCount>10</maxWeakCount>
      <stageThreshold>-1.9101371765136719e+00</stageThreshold>
      <weakClassifiers>
        <_>
          <internalNodes>
            0 -1 123 3.6230953410267830e-03</internalNodes>
          <leafValues>
            -8.4088808298110962e-01 4.7368422150611877e-01</leafValues></_>
        <_>
          <internalNodes>
            0 -1 129 8.9251454919576645e-03</internalNodes>
          <leafValues>
            -4.5776042342185974e-01 6.9896966218948364e-01</leafValues></_>
        <_>
          <internalNodes>
            0 -1 142 -4.5527747715823352e-05</internalNodes>
          <leafValues>
            -4.8603001236915588e-01 2.2499285638332367e-01</leafValues></_>
        <_>
          <internalNodes>
            0 -1 108 8.6757428944110870e-03</internalNodes>
          <leafValues>
            -1.8141777813434601e-01 6.8437612056732178e-01</leafValues></_>
        <_>
          <internalNodes>
            0 -1 27 -5.7754372246563435e-03</internalNodes>
          <leafValues>
            5.4114711284637451e-01 -2.0542968809604645e-01</leafValues></_>
        <_>
          <internalNodes>
            0 -1 139 -1.8547143554314971e-05</internalNodes>
          <leafValues>
            -4.8416998982429504e-01 2.3773840069770813e-01</leafValues></_>
        <_>
          <internalNodes>
            0 -1 92 -5.9512240113690495e-04</internalNodes>
          <leafValues>
            4.6880236268043518e-01 -2.3488979041576385e-01</leafValues></_>
        <_>
          <internalNodes>
            0 -1 60 -1.8342672847211361e-03</internalNodes>
          <leafValues>
            -6.5569460391998291e-01 1.7395193874835968e-01</leafValues></_>
        <_>
          <internalNodes>
            0 -1 145 -9.3059818027541041e-05</internalNodes>
          <leafValues>
            -5.4336220026016235e-01 2.1011330187320709e-01</leafValues></_>
        <_>
          <internalNodes>
            0 -1 125 3.2515043858438730e-04</internalNodes>
          <leafValues>
            -2.2695788741111755e-01 5.5647164583206177e-01</leafValues></_></weakClassifiers></_>
    <!-- stage 6 -->
    <_>
      <maxWeakCount>8</maxWeakCount>
      <stageThreshold>-1.9940286874771118e+00</stageThreshold>
      <weakClassifiers>
        <_>
          <internalNodes>
            0 -1 41 4.6011991798877716e-02</internalNodes>
          <leafValues>
            -8.5618406534194946e-01 -1.2280701845884323e-01</leafValues></_>
        <_>
          <internalNodes>
            0 -1 51 1.0511027649044991e-03</internalNodes>
          <leafValues>
            -4.9087712168693542e-01 3.4598749876022339e-01</leafValues></_>
        <_>
          <internalNodes>
            0 -1 2 1.4627913944423199e-02</internalNodes>
          <leafValues>
            9.2238724231719971e-02 -8.1704670190811157e-01</leafValues></_>
        <_>
          <internalNodes>
            0 -1 134 2.0637836132664233e-04</internalNodes>
          <leafValues>
            2.3588676750659943e-01 -5.3438323736190796e-01</leafValues></_>
        <_>
          <internalNodes>
            0 -1 52 4.6376243233680725e-02</internalNodes>
          <leafValues>
            -2.7747565507888794e-01 5.1202464103698730e-01</leafValues></_>
        <_>
          <internalNodes>
            0 -1 32 -1.8253152666147798e-04</internalNodes>
          <leafValues>
            -4.7147962450981140e-01 2.4823357164859772e-01</leafValues></_>
        <_>
          <internalNodes>
            0 -1 31 2.1535347332246602e-04</internalNodes>
          <leafValues>
            1.3418699800968170e-01 -7.9537904262542725e-01</leafValues></_>
        <_>
          <internalNodes>
            0 -1 87 -8.1266164779663086e-03</internalNodes>
          <leafValues>
            3.1991484761238098e-01 -3.6032468080520630e-01</leafValues></_></weakClassifiers></_>
    <!-- stage 7 -->
    <_>
      <maxWeakCount>9</maxWeakCount>
      <stageThreshold>-1.9449275732040405e+00</stageThreshold>
      <weakClassifiers>
        <_>
          <internalNodes>
            0 -1 64 -2.9561028350144625e-03</internalNodes>
          <leafValues>
            9.0909093618392944e-02 -8.4629803895950317e-01</leafValues></_>
        <_>
          <internalNodes>
            0 -1 65 1.6354242339730263e-02</internalNodes>
          <leafValues>
            -5.8072388172149658e-01 1.9600898027420044e-02</leafValues></_>
        <_>
          <internalNodes>
            0 -1 30 -7.6074960816185921e-05</internalNodes>
          <leafValues>
            -4.6961158514022827e-01 2.2987884283065796e-01</leafValues></_>
        <_>
          <internalNodes>
            0 -1 5 8.2159000157844275e-05</internalNodes>
          <leafValues>
            1.6955286264419556e-01 -5.5524933338165283e-01</leafValues></_>
        <_>
          <internalNodes>
            0 -1 116 -1.4405915862880647e-05</internalNodes>
          <leafValues>
            3.5624364018440247e-01 -3.3053636550903320e-01</leafValues></_>
        <_>
          <internalNodes>
            0 -1 143 -1.7370752175338566e-05</internalNodes>
          <leafValues>
            -5.5675774812698364e-01 1.8632565438747406e-01</leafValues></_>
        <_>
          <internalNodes>
            0 -1 48 -2.8820440638810396e-04</internalNodes>
          <leafValues>
            3.3065041899681091e-01 -3.1271475553512573e-01</leafValues></_>
        <_>
          <internalNodes>
            0 -1 111 8.2301422953605652e-03</internalNodes>
          <leafValues>
            -1.8177896738052368e-01 5.6330335140228271e-01</leafValues></_>
        <_>
          <internalNodes>
            0 -1 44 -1.0508574545383453e-02</internalNodes>
          <leafValues>
            3.6684015393257141e-01 -2.6592245697975159e-01</leafValues></_></weakClassifiers></_>
    <!-- stage 8 -->
    <_>
      <maxWeakCount>10</maxWeakCount>
      <stageThreshold>-1.9173488616943359e+00</stageThreshold>
      <weakClassifiers>
        <_>
          <internalNodes>
            0 -1 54 -4.8425910063087940e-03</internalNodes>
          <leafValues>
            8.1818181276321411e-01 -8.3471071720123291e-01</leafValues></_>
        <_>
          <internalNodes>
            0 -1 88 -6.3599538989365101e-03</internalNodes>
          <leafValues>
            4.6566262841224670e-01 -4.5181700587272644e-01</leafValues></_>
        <_>
          <internalNodes>
            0 -1 141 9.8196999169886112e-04</internalNodes>
          <leafValues>
            1.2401822954416275e-01 -6.7025279998779297e-01</leafValues></_>
        <_>
          <internalNodes>
            0 -1 91 8.0436248026671819e-06</internalNodes>
          <leafValues>
            -3.6627191305160522e-01 2.4614134430885315e-01</leafValues></_>
        <_>
          <internalNodes>
            0 -1 24 -1.4728099107742310e-02</internalNodes>
          <leafValues>
            2.8548148274421692e-01 -3.5326546430587769e-01</leafValues></_>
        <_>
          <internalNodes>
            0 -1 29 -2.0579532720148563e-03</internalNodes>
          <leafValues>
            -8.9095246791839600e-01 1.1668466031551361e-01</leafValues></_>
        <_>
          <internalNodes>
            0 -1 126 -2.4569025845266879e-04</internalNodes>
          <leafValues>
            4.9295166134834290e-01 -2.0189994573593140e-01</leafValues></_>
        <_>
          <internalNodes>
            0 -1 137 -3.5864206438418478e-05</internalNodes>
          <leafValues>
            -6.1698645353317261e-01 1.7319001257419586e-01</leafValues></_>
        <_>
          <internalNodes>
            0 -1 94 2.6496836653677747e-05</internalNodes>
          <leafValues>
            -4.0529522299766541e-01 2.5381192564964294e-01</leafValues></_>
        <_>
          <internalNodes>
            0 -1 131 4.1558723896741867e-03</internalNodes>
          <leafValues>
            -3.5672846436500549e-01 2.6704472303390503e-01</leafValues></_></weakClassifiers></_>
    <!-- stage 9 -->
    <_>
      <maxWeakCount>8</maxWeakCount>
      <stageThreshold>-1.5284868478775024e+00</stageThreshold>
      <weakClassifiers>
        <_>
          <internalNodes>
            0 -1 20 -4.6465411782264709e-02</internalNodes>
          <leafValues>
            6.2500000000000000e-02 -8.4456926584243774e-01</leafValues></_>
        <_>
          <internalNodes>
            0 -1 120 6.1679795384407043e-02</internalNodes>
          <leafValues>
            -4.6996510028839111e-01 2.3775179684162140e-01</leafValues></_>
        <_>
          <internalNodes>
            0 -1 23 -1.8553570844233036e-03</internalNodes>
          <leafValues>
            -6.7849582433700562e-01 1.0123648494482040e-01</leafValues></_>
        <_>
          <internalNodes>
            0 -1 59 -4.5278345351107419e-04</internalNodes>
          <leafValues>
            -7.4776458740234375e-01 9.3650862574577332e-02</leafValues></_>
        <_>
          <internalNodes>
            0 -1 16 -1.4575657248497009e-01</internalNodes>
          <leafValues>
            -1. 1.1502679437398911e-01</leafValues></_>
        <_>
          <internalNodes>
            0 -1 68 -2.3620249703526497e-02</internalNodes>
          <leafValues>
            4.4283083081245422e-01 -2.5148057937622070e-01</leafValues></_>
        <_>
          <internalNodes>
            0 -1 63 3.9319112896919250e-02</internalNodes>
          <leafValues>
            -3.1534665822982788e-01 2.8708621859550476e-01</leafValues></_>
        <_>
          <internalNodes>
            0 -1 13 5.4144875321071595e-05</internalNodes>
          <leafValues>
            1.9006471335887909e-01 -5.1058214902877808e-01</leafValues></_></weakClassifiers></_>
    <!-- stage 10 -->
    <_>
      <maxWeakCount>11</maxWeakCount>
      <stageThreshold>-1.7974324226379395e+00</stageThreshold>
      <weakClassifiers>
        <_>
          <internalNodes>
            0 -1 122 -1.0862980037927628e-02</internalNodes>
          <leafValues>
            7.0154254813612471e-18 -8.4427767992019653e-01</leafValues></_>
        <_>
          <internalNodes>
            0 -1 49 1.6683150082826614e-02</internalNodes>
          <leafValues>
            -4.4254589080810547e-01 3.8607269525527954e-01</leafValues></_>
        <_>
          <internalNodes>
            0 -1 39 -8.1226266920566559e-02</internalNodes>
          <leafValues>
            -7.5271564722061157e-01 9.4830229878425598e-02</leafValues></_>
        <_>
          <internalNodes>
            0 -1 82 8.7233558297157288e-03</internalNodes>
          <leafValues>
            1.3152346014976501e-01 -8.7844598293304443e-01</leafValues></_>
        <_>
          <internalNodes>
            0 -1 74 1.2719186088361312e-05</internalNodes>
          <leafValues>
            -3.6883124709129333e-01 2.5231406092643738e-01</leafValues></_>
        <_>
          <internalNodes>
            0 -1 83 1.3275551609694958e-03</internalNodes>
          <leafValues>
            -2.4975948035717010e-01 3.6621972918510437e-01</leafValues></_>
        <_>
          <internalNodes>
            0 -1 36 1.0811484389705583e-04</internalNodes>
          <leafValues>
            2.7240878343582153e-01 -3.6020934581756592e-01</leafValues></_>
        <_>
          <internalNodes>
            0 -1 118 -7.2051066672429442e-04</internalNodes>
          <leafValues>
            5.9292441606521606e-01 -1.6863486170768738e-01</leafValues></_>
        <_>
          <internalNodes>
            0 -1 7 3.4640580415725708e-02</internalNodes>
          <leafValues>
            1.3255630433559418e-01 -7.3432606458663940e-01</leafValues></_>
        <_>
          <internalNodes>
            0 -1 75 -1.8692344019655138e-04</internalNodes>
          <leafValues>
            2.9134070873260498e-01 -3.2708418369293213e-01</leafValues></_>
        <_>
          <internalNodes>
            0 -1 79 2.8258375823497772e-04</internalNodes>
          <leafValues>
            -3.9513963460922241e-01 2.8617918491363525e-01</leafValues></_></weakClassifiers></_>
    <!-- stage 11 -->
    <_>
      <maxWeakCount>8</maxWeakCount>
      <stageThreshold>-1.6291381120681763e+00</stageThreshold>
      <weakClassifiers>
        <_>
          <internalNodes>
            0 -1 71 -1.6959402710199356e-03</internalNodes>
          <leafValues>
            1.6666667163372040e-01 -8.4014868736267090e-01</leafValues></_>
        <_>
          <internalNodes>
            0 -1 45 3.6209144163876772e-03</internalNodes>
          <leafValues>
            -4.1366028785705566e-01 6.4323574304580688e-01</leafValues></_>
        <_>
          <internalNodes>
            0 -1 77 4.0177972987294197e-03</internalNodes>
          <leafValues>
            1.2278946489095688e-01 -6.3588207960128784e-01</leafValues></_>
        <_>
          <internalNodes>
            0 -1 140 3.6512072256300598e-05</internalNodes>
          <leafValues>
            1.4005193114280701e-01 -5.9165179729461670e-01</leafValues></_>
        <_>
          <internalNodes>
            0 -1 34 -1.9993750378489494e-02</internalNodes>
          <leafValues>
            6.3565546274185181e-01 -1.3223071396350861e-01</leafValues></_>
        <_>
          <internalNodes>
            0 -1 89 -9.0282039309386164e-05</internalNodes>
          <leafValues>
            2.7313777804374695e-01 -3.5348653793334961e-01</leafValues></_>
        <_>
          <internalNodes>
            0 -1 128 1.0859747231006622e-01</internalNodes>
          <leafValues>
            1.1498457193374634e-01 -8.1903231143951416e-01</leafValues></_>
        <_>
          <internalNodes>
            0 -1 115 -1.5764696290716529e-03</internalNodes>
          <leafValues>
            3.2147303223609924e-01 -2.6743784546852112e-01</leafValues></_></weakClassifiers></_>
    <!-- stage 12 -->
    <_>
      <maxWeakCount>9</maxWeakCount>
      <stageThreshold>-1.5387994050979614e+00</stageThreshold>
      <weakClassifiers>
        <_>
          <internalNodes>
            0 -1 61 1.0584289208054543e-02</internalNodes>
          <leafValues>
            -8.3793741464614868e-01 7.1428573131561279e-01</leafValues></_>
        <_>
          <internalNodes>
            0 -1 53 -2.3933239281177521e-02</internalNodes>
          <leafValues>
            3.6432492733001709e-01 -4.9207574129104614e-01</leafValues></_>
        <_>
          <internalNodes>
            0 -1 72 2.4276829790323973e-03</internalNodes>
          <leafValues>
            -2.2151868045330048e-01 4.8361721634864807e-01</leafValues></_>
        <_>
          <internalNodes>
            0 -1 57 -2.5008880766108632e-04</internalNodes>
          <leafValues>
            3.9678722620010376e-01 -2.1372570097446442e-01</leafValues></_>
        <_>
          <internalNodes>
            0 -1 144 -4.9863858148455620e-03</internalNodes>
          <leafValues>
            -6.3863068819046021e-01 1.4867013692855835e-01</leafValues></_>
        <_>
          <internalNodes>
            0 -1 110 6.1824925069231540e-05</internalNodes>
          <leafValues>
            -3.2189208269119263e-01 3.3715045452117920e-01</leafValues></_>
        <_>
          <internalNodes>
            0 -1 78 1.2509464286267757e-03</internalNodes>
          <leafValues>
            1.4188754558563232e-01 -5.9148955345153809e-01</leafValues></_>
        <_>
          <internalNodes>
            0 -1 78 -9.7451242618262768e-04</internalNodes>
          <leafValues>
            -5.7663649320602417e-01 1.6938588023185730e-01</leafValues></_>
        <_>
          <internalNodes>
            0 -1 109 -2.6651367079466581e-05</internalNodes>
          <leafValues>
            2.5755140185356140e-01 -3.4620597958564758e-01</leafValues></_></weakClassifiers></_>
    <!-- stage 13 -->
    <_>
      <maxWeakCount>11</maxWeakCount>
      <stageThreshold>-1.6203507184982300e+00</stageThreshold>
      <weakClassifiers>
        <_>
          <internalNodes>
            0 -1 55 -8.3221718668937683e-03</internalNodes>
          <leafValues>
            2.6315790414810181e-01 -8.3718776702880859e-01</leafValues></_>
        <_>
          <internalNodes>
            0 -1 93 4.5989453792572021e-03</internalNodes>
          <leafValues>
            -4.3838819861412048e-01 3.7123399972915649e-01</leafValues></_>
        <_>
          <internalNodes>
            0 -1 26 -5.5842369329184294e-04</internalNodes>
          <leafValues>
            -1. 5.7321213185787201e-02</leafValues></_>
        <_>
          <internalNodes>
            0 -1 6 1.1825002002296969e-04</internalNodes>
          <leafValues>
            2.1383056044578552e-01 -3.5159236192703247e-01</leafValues></_>
        <_>
          <internalNodes>
            0 -1 100 5.3318548016250134e-03</internalNodes>
          <leafValues>
            -2.2007037699222565e-01 4.4778650999069214e-01</leafValues></_>
        <_>
          <internalNodes>
            0 -1 105 8.2940235733985901e-04</internalNodes>
          <leafValues>
            -2.4742607772350311e-01 3.3302491903305054e-01</leafValues></_>
        <_>
          <internalNodes>
            0 -1 85 8.4161050617694855e-03</internalNodes>
          <leafValues>
            7.4666656553745270e-02 -1.</leafValues></_>
        <_>
          <internalNodes>
            0 -1 33 1.3990516308695078e-03</internalNodes>
          <leafValues>
            -2.1342439949512482e-01 3.8089340925216675e-01</leafValues></_>
        <_>
          <internalNodes>
            0 -1 21 1.7413700334145688e-05</internalNodes>
          <leafValues>
            2.0196679234504700e-01 -4.4448089599609375e-01</leafValues></_>
        <_>
          <internalNodes>
            0 -1 76 1.9658179953694344e-03</internalNodes>
          <leafValues>
            1.7529930174350739e-01 -5.5835133790969849e-01</leafValues></_>
        <_>
          <internalNodes>
            0 -1 147 -6.4503532485105097e-05</internalNodes>
          <leafValues>
            2.8983408212661743e-01 -3.2094174623489380e-01</leafValues></_></weakClassifiers></_>
    <!-- stage 14 -->
    <_>
      <maxWeakCount>9</maxWeakCount>
      <stageThreshold>-1.6234391927719116e+00</stageThreshold>
      <weakClassifiers>
        <_>
          <internalNodes>
            0 -1 62 -5.6895827874541283e-03</internalNodes>
          <leafValues>
            1. -8.3486241102218628e-01</leafValues></_>
        <_>
          <internalNodes>
            0 -1 18 -3.9826598949730396e-03</internalNodes>
          <leafValues>
            -5.3332958370447159e-02 -6.5433388948440552e-01</leafValues></_>
        <_>
          <internalNodes>
            0 -1 119 -1.2285029515624046e-03</internalNodes>
          <leafValues>
            3.8919615745544434e-01 -2.6211526989936829e-01</leafValues></_>
        <_>
          <internalNodes>
            0 -1 4 2.9053766280412674e-02</internalNodes>
          <leafValues>
            -2.3490466177463531e-01 4.6146693825721741e-01</leafValues></_>
        <_>
          <internalNodes>
            0 -1 38 -2.5271193590015173e-04</internalNodes>
          <leafValues>
            -5.3500384092330933e-01 2.0195145905017853e-01</leafValues></_>
        <_>
          <internalNodes>
            0 -1 86 1.1181215086253360e-05</internalNodes>
          <leafValues>
            -3.2183912396430969e-01 3.2745039463043213e-01</leafValues></_>
        <_>
          <internalNodes>
            0 -1 47 -3.4197787754237652e-03</internalNodes>
          <leafValues>
            4.4392332434654236e-01 -2.6191663742065430e-01</leafValues></_>
        <_>
          <internalNodes>
            0 -1 73 4.3444819748401642e-02</internalNodes>
          <leafValues>
            -2.1983307600021362e-01 4.7775509953498840e-01</leafValues></_>
        <_>
          <internalNodes>
            0 -1 107 1.0211763437837362e-03</internalNodes>
          <leafValues>
            -2.0023226737976074e-01 5.6224071979522705e-01</leafValues></_></weakClassifiers></_>
    <!-- stage 15 -->
    <_>
      <maxWeakCount>9</maxWeakCount>
      <stageThreshold>-1.6501002311706543e+00</stageThreshold>
      <weakClassifiers>
        <_>
          <internalNodes>
            0 -1 12 -1.9660583138465881e-01</internalNodes>
          <leafValues>
            5.6521737575531006e-01 -8.4772515296936035e-01</leafValues></_>
        <_>
          <internalNodes>
            0 -1 112 4.6260179951786995e-03</internalNodes>
          <leafValues>
            -4.7734180092811584e-01 4.7033777832984924e-01</leafValues></_>
        <_>
          <internalNodes>
            0 -1 136 -7.9116234701359645e-06</internalNodes>
          <leafValues>
            -4.0613898634910583e-01 2.6382437348365784e-01</leafValues></_>
        <_>
          <internalNodes>
            0 -1 132 -1.1507186572998762e-03</internalNodes>
          <leafValues>
            3.8180458545684814e-01 -2.8232857584953308e-01</leafValues></_>
        <_>
          <internalNodes>
            0 -1 80 1.4418568753171712e-05</internalNodes>
          <leafValues>
            -2.6683413982391357e-01 4.1857397556304932e-01</leafValues></_>
        <_>
          <internalNodes>
            0 -1 95 3.6475685192272067e-04</internalNodes>
          <leafValues>
            -3.1657680869102478e-01 4.7308182716369629e-01</leafValues></_>
        <_>
          <internalNodes>
            0 -1 127 2.9275110136950389e-05</internalNodes>
          <leafValues>
            3.6071914434432983e-01 -4.0471047163009644e-01</leafValues></_>
        <_>
          <internalNodes>
            0 -1 37 -1.0154073243029416e-04</internalNodes>
          <leafValues>
            3.8733333349227905e-01 -4.1727864742279053e-01</leafValues></_>
        <_>
          <internalNodes>
            0 -1 104 -5.8534828895062674e-06</internalNodes>
          <leafValues>
            3.3344131708145142e-01 -4.3262907862663269e-01</leafValues></_></weakClassifiers></_>
    <!-- stage 16 -->
    <_>
      <maxWeakCount>7</maxWeakCount>
      <stageThreshold>-2.2622570991516113e+00</stageThreshold>
      <weakClassifiers>
        <_>
          <internalNodes>
            0 -1 97 -1.6227355226874352e-03</internalNodes>
          <leafValues>
            1. -8.5356813669204712e-01</leafValues></_>
        <_>
          <internalNodes>
            0 -1 130 -3.1261860858649015e-03</internalNodes>
          <leafValues>
            7.9303610324859619e-01 -5.1663190126419067e-01</leafValues></_>
        <_>
          <internalNodes>
            0 -1 84 -2.6593951042741537e-04</internalNodes>
          <leafValues>
            -5.7087761163711548e-01 3.2523268461227417e-01</leafValues></_>
        <_>
          <internalNodes>
            0 -1 103 9.6713774837553501e-04</internalNodes>
          <leafValues>
            -2.4070487916469574e-01 9.1221439838409424e-01</leafValues></_>
        <_>
          <internalNodes>
            0 -1 133 -1.2525927741080523e-04</internalNodes>
          <leafValues>
            -5.3158444166183472e-01 3.5653844475746155e-01</leafValues></_>
        <_>
          <internalNodes>
            0 -1 90 5.7028017181437463e-05</internalNodes>
          <leafValues>
            -2.9954528808593750e-01 6.8425929546356201e-01</leafValues></_>
        <_>
          <internalNodes>
            0 -1 114 4.3774447403848171e-03</internalNodes>
          <leafValues>
            -2.3314951360225677e-01 9.4947147369384766e-01</leafValues></_></weakClassifiers></_>
    <!-- stage 17 -->
    <_>
      <maxWeakCount>5</maxWeakCount>
      <stageThreshold>-1.4818830490112305e+00</stageThreshold>
      <weakClassifiers>
        <_>
          <internalNodes>
            0 -1 81 2.7603228227235377e-04</internalNodes>
          <leafValues>
            -8.9214760065078735e-01 1.</leafValues></_>
        <_>
          <internalNodes>
            0 -1 117 -2.0784009248018265e-03</internalNodes>
          <leafValues>
            1. -6.4691233634948730e-01</leafValues></_>
        <_>
          <internalNodes>
            0 -1 22 -4.4996626675128937e-03</internalNodes>
          <leafValues>
            -7.3601430654525757e-01 3.9248147606849670e-01</leafValues></_>
        <_>
          <internalNodes>
            0 -1 46 7.1991323493421078e-03</internalNodes>
          <leafValues>
            3.1343987584114075e-01 -9.1685760021209717e-01</leafValues></_>
        <_>
          <internalNodes>
            0 -1 135 -3.6301229556556791e-05</internalNodes>
          <leafValues>
            -6.2403494119644165e-01 4.7975128889083862e-01</leafValues></_></weakClassifiers></_></stages>
  <features>
    <_>
      <rects>
        <_>
          0 0 3 1 -1.</_>
        <_>
          1 0 1 1 3.</_></rects>
      <tilted>0</tilted></_>
    <_>
      <rects>
        <_>
          0 0 27 4 -1.</_>
        <_>
          0 2 27 2 2.</_></rects>
      <tilted>0</tilted></_>
    <_>
      <rects>
        <_>
          0 1 2 18 -1.</_>
        <_>
          0 10 2 9 2.</_></rects>
      <tilted>0</tilted></_>
    <_>
      <rects>
        <_>
          0 3 2 10 -1.</_>
        <_>
          0 3 1 5 2.</_>
        <_>
          1 8 1 5 2.</_></rects>
      <tilted>0</tilted></_>
    <_>
      <rects>
        <_>
          0 4 12 16 -1.</_>
        <_>
          0 4 6 8 2.</_>
        <_>
          6 12 6 8 2.</_></rects>
      <tilted>0</tilted></_>
    <_>
      <rects>
        <_>
          0 14 3 3 -1.</_>
        <_>
          0 15 3 1 3.</_></rects>
      <tilted>0</tilted></_>
    <_>
      <rects>
        <_>
          0 16 2 6 -1.</_>
        <_>
          0 18 2 2 3.</_></rects>
      <tilted>0</tilted></_>
    <_>
      <rects>
        <_>
          0 17 30 3 -1.</_>
        <_>
          15 17 15 3 2.</_></rects>
      <tilted>0</tilted></_>
    <_>
      <rects>
        <_>
          0 30 32 2 -1.</_>
        <_>
          16 30 16 2 2.</_></rects>
      <tilted>0</tilted></_>
    <_>
      <rects>
        <_>
          1 0 4 1 -1.</_>
        <_>
          3 0 2 1 2.</_></rects>
      <tilted>0</tilted></_>
    <_>
      <rects>
        <_>
          1 0 2 32 -1.</_>
        <_>
          1 16 2 16 2.</_></rects>
      <tilted>0</tilted></_>
    <_>
      <rects>
        <_>
          1 0 14 27 -1.</_>
        <_>
          8 0 7 27 2.</_></rects>
      <tilted>0</tilted></_>
    <_>
      <rects>
        <_>
          1 1 30 5 -1.</_>
        <_>
          11 1 10 5 3.</_></rects>
      <tilted>0</tilted></_>
    <_>
      <rects>
        <_>
          1 2 2 3 -1.</_>
        <_>
          1 3 2 1 3.</_></rects>
      <tilted>0</tilted></_>
    <_>
      <rects>
        <_>
          1 3 30 2 -1.</_>
        <_>
          11 3 10 2 3.</_></rects>
      <tilted>0</tilted></_>
    <_>
      <rects>
        <_>
          1 3 30 3 -1.</_>
        <_>
          11 3 10 3 3.</_></rects>
      <tilted>0</tilted></_>
    <_>
      <rects>
        <_>
          1 4 14 27 -1.</_>
        <_>
          1 13 14 9 3.</_></rects>
      <tilted>0</tilted></_>
    <_>
      <rects>
        <_>
          1 11 2 10 -1.</_>
        <_>
          1 11 1 5 2.</_>
        <_>
          2 16 1 5 2.</_></rects>
      <tilted>0</tilted></_>
    <_>
      <rects>
        <_>
          1 23 12 7 -1.</_>
        <_>
          7 23 6 7 2.</_></rects>
      <tilted>0</tilted></_>
    <_>
      <rects>
        <_>
          1 30 26 2 -1.</_>
        <_>
          14 30 13 2 2.</_></rects>
      <tilted>0</tilted></_>
    <_>
      <rects>
        <_>
          2 3 30 1 -1.</_>
        <_>
          12 3 10 1 3.</_></rects>
      <tilted>0</tilted></_>
    <_>
      <rects>
        <_>
          2 11 2 4 -1.</_>
        <_>
          2 11 1 2 2.</_>
        <_>
          3 13 1 2 2.</_></rects>
      <tilted>0</tilted></_>
    <_>
      <rects>
        <_>
          2 20 28 4 -1.</_>
        <_>
          2 20 14 2 2.</_>
        <_>
          16 22 14 2 2.</_></rects>
      <tilted>0</tilted></_>
    <_>
      <rects>
        <_>
          2 30 28 2 -1.</_>
        <_>
          2 30 14 1 2.</_>
        <_>
          16 31 14 1 2.</_></rects>
      <tilted>0</tilted></_>
    <_>
      <rects>
        <_>
          3 1 29 12 -1.</_>
        <_>
          3 5 29 4 3.</_></rects>
      <tilted>0</tilted></_>
    <_>
      <rects>
        <_>
          3 16 22 16 -1.</_>
        <_>
          3 24 22 8 2.</_></rects>
      <tilted>0</tilted></_>
    <_>
      <rects>
        <_>
          3 18 4 2 -1.</_>
        <_>
          3 18 2 1 2.</_>
        <_>
          5 19 2 1 2.</_></rects>
      <tilted>0</tilted></_>
    <_>
      <rects>
        <_>
          3 21 15 1 -1.</_>
        <_>
          8 21 5 1 3.</_></rects>
      <tilted>0</tilted></_>
    <_>
      <rects>
        <_>
          4 0 28 8 -1.</_>
        <_>
          18 0 14 8 2.</_></rects>
      <tilted>0</tilted></_>
    <_>
      <rects>
        <_>
          4 1 1 6 -1.</_>
        <_>
          4 4 1 3 2.</_></rects>
      <tilted>0</tilted></_>
    <_>
      <rects>
        <_>
          4 1 2 5 -1.</_>
        <_>
          5 1 1 5 2.</_></rects>
      <tilted>0</tilted></_>
    <_>
      <rects>
        <_>
          4 2 2 2 -1.</_>
        <_>
          5 2 1 2 2.</_></rects>
      <tilted>0</tilted></_>
    <_>
      <rects>
        <_>
          4 3 2 5 -1.</_>
        <_>
          5 3 1 5 2.</_></rects>
      <tilted>0</tilted></_>
    <_>
      <rects>
        <_>
          4 19 6 4 -1.</_>
        <_>
          4 19 3 2 2.</_>
        <_>
          7 21 3 2 2.</_></rects>
      <tilted>0</tilted></_>
    <_>
      <rects>
        <_>
          5 1 4 11 -1.</_>
        <_>
          7 1 2 11 2.</_></rects>
      <tilted>0</tilted></_>
    <_>
      <rects>
        <_>
          5 6 4 21 -1.</_>
        <_>
          7 6 2 21 2.</_></rects>
      <tilted>0</tilted></_>
    <_>
      <rects>
        <_>
          5 12 3 9 -1.</_>
        <_>
          5 15 3 3 3.</_></rects>
      <tilted>0</tilted></_>
    <_>
      <rects>
        <_>
          5 27 2 4 -1.</_>
        <_>
          5 29 2 2 2.</_></rects>
      <tilted>0</tilted></_>
    <_>
      <rects>
        <_>
          6 0 4 1 -1.</_>
        <_>
          8 0 2 1 2.</_></rects>
      <tilted>0</tilted></_>
    <_>
      <rects>
        <_>
          6 0 20 22 -1.</_>
        <_>
          6 0 10 11 2.</_>
        <_>
          16 11 10 11 2.</_></rects>
      <tilted>0</tilted></_>
    <_>
      <rects>
        <_>
          6 0 11 3 -1.</_>
        <_>
          6 1 11 1 3.</_></rects>
      <tilted>0</tilted></_>
    <_>
      <rects>
        <_>
          6 1 12 10 -1.</_>
        <_>
          6 1 6 5 2.</_>
        <_>
          12 6 6 5 2.</_></rects>
      <tilted>0</tilted></_>
    <_>
      <rects>
        <_>
          6 10 3 3 -1.</_>
        <_>
          7 10 1 3 3.</_></rects>
      <tilted>0</tilted></_>
    <_>
      <rects>
        <_>
          6 10 6 17 -1.</_>
        <_>
          8 10 2 17 3.</_></rects>
      <tilted>0</tilted></_>
    <_>
      <rects>
        <_>
          6 16 6 12 -1.</_>
        <_>
          9 16 3 12 2.</_></rects>
      <tilted>0</tilted></_>
    <_>
      <rects>
        <_>
          6 17 3 3 -1.</_>
        <_>
          7 17 1 3 3.</_></rects>
      <tilted>0</tilted></_>
    <_>
      <rects>
        <_>
          6 20 18 4 -1.</_>
        <_>
          6 20 9 2 2.</_>
        <_>
          15 22 9 2 2.</_></rects>
      <tilted>0</tilted></_>
    <_>
      <rects>
        <_>
          7 7 6 8 -1.</_>
        <_>
          7 7 3 4 2.</_>
        <_>
          10 11 3 4 2.</_></rects>
      <tilted>0</tilted></_>
    <_>
      <rects>
        <_>
          7 8 5 3 -1.</_>
        <_>
          7 9 5 1 3.</_></rects>
      <tilted>0</tilted></_>
    <_>
      <rects>
        <_>
          7 9 6 11 -1.</_>
        <_>
          9 9 2 11 3.</_></rects>
      <tilted>0</tilted></_>
    <_>
      <rects>
        <_>
          7 9 19 3 -1.</_>
        <_>
          7 10 19 1 3.</_></rects>
      <tilted>0</tilted></_>
    <_>
      <rects>
        <_>
          7 11 3 2 -1.</_>
        <_>
          8 11 1 2 3.</_></rects>
      <tilted>0</tilted></_>
    <_>
      <rects>
        <_>
          7 11 13 15 -1.</_>
        <_>
          7 16 13 5 3.</_></rects>
      <tilted>0</tilted></_>
    <_>
      <rects>
        <_>
          8 0 14 4 -1.</_>
        <_>
          8 2 14 2 2.</_></rects>
      <tilted>0</tilted></_>
    <_>
      <rects>
        <_>
          8 5 3 3 -1.</_>
        <_>
          9 5 1 3 3.</_></rects>
      <tilted>0</tilted></_>
    <_>
      <rects>
        <_>
          8 6 3 6 -1.</_>
        <_>
          9 6 1 6 3.</_></rects>
      <tilted>0</tilted></_>
    <_>
      <rects>
        <_>
          8 7 10 3 -1.</_>
        <_>
          8 8 10 1 3.</_></rects>
      <tilted>0</tilted></_>
    <_>
      <rects>
        <_>
          8 11 2 3 -1.</_>
        <_>
          8 12 2 1 3.</_></rects>
      <tilted>0</tilted></_>
    <_>
      <rects>
        <_>
          8 13 15 3 -1.</_>
        <_>
          8 14 15 1 3.</_></rects>
      <tilted>0</tilted></_>
    <_>
      <rects>
        <_>
          8 28 4 3 -1.</_>
        <_>
          8 29 4 1 3.</_></rects>
      <tilted>0</tilted></_>
    <_>
      <rects>
        <_>
          8 30 6 2 -1.</_>
        <_>
          11 30 3 2 2.</_></rects>
      <tilted>0</tilted></_>
    <_>
      <rects>
        <_>
          9 2 4 6 -1.</_>
        <_>
          9 2 2 3 2.</_>
        <_>
          11 5 2 3 2.</_></rects>
      <tilted>0</tilted></_>
    <_>
      <rects>
        <_>
          9 6 3 7 -1.</_>
        <_>
          10 6 1 7 3.</_></rects>
      <tilted>0</tilted></_>
    <_>
      <rects>
        <_>
          9 6 10 24 -1.</_>
        <_>
          9 14 10 8 3.</_></rects>
      <tilted>0</tilted></_>
    <_>
      <rects>
        <_>
          10 0 6 2 -1.</_>
        <_>
          10 0 3 1 2.</_>
        <_>
          13 1 3 1 2.</_></rects>
      <tilted>0</tilted></_>
    <_>
      <rects>
        <_>
          11 4 12 14 -1.</_>
        <_>
          15 4 4 14 3.</_></rects>
      <tilted>0</tilted></_>
    <_>
      <rects>
        <_>
          11 8 1 6 -1.</_>
        <_>
          11 10 1 2 3.</_></rects>
      <tilted>0</tilted></_>
    <_>
      <rects>
        <_>
          11 10 9 3 -1.</_>
        <_>
          11 11 9 1 3.</_></rects>
      <tilted>0</tilted></_>
    <_>
      <rects>
        <_>
          11 10 12 15 -1.</_>
        <_>
          11 15 12 5 3.</_></rects>
      <tilted>0</tilted></_>
    <_>
      <rects>
        <_>
          11 18 3 4 -1.</_>
        <_>
          12 18 1 4 3.</_></rects>
      <tilted>0</tilted></_>
    <_>
      <rects>
        <_>
          12 0 10 4 -1.</_>
        <_>
          12 2 10 2 2.</_></rects>
      <tilted>0</tilted></_>
    <_>
      <rects>
        <_>
          12 1 1 2 -1.</_>
        <_>
          12 2 1 1 2.</_></rects>
      <tilted>0</tilted></_>
    <_>
      <rects>
        <_>
          12 1 2 6 -1.</_>
        <_>
          12 3 2 2 3.</_></rects>
      <tilted>0</tilted></_>
    <_>
      <rects>
        <_>
          12 8 6 24 -1.</_>
        <_>
          12 16 6 8 3.</_></rects>
      <tilted>0</tilted></_>
    <_>
      <rects>
        <_>
          12 15 3 1 -1.</_>
        <_>
          13 15 1 1 3.</_></rects>
      <tilted>0</tilted></_>
    <_>
      <rects>
        <_>
          12 17 6 9 -1.</_>
        <_>
          14 17 2 9 3.</_></rects>
      <tilted>0</tilted></_>
    <_>
      <rects>
        <_>
          12 31 12 1 -1.</_>
        <_>
          18 31 6 1 2.</_></rects>
      <tilted>0</tilted></_>
    <_>
      <rects>
        <_>
          13 0 4 7 -1.</_>
        <_>
          15 0 2 7 2.</_></rects>
      <tilted>0</tilted></_>
    <_>
      <rects>
        <_>
          13 0 8 1 -1.</_>
        <_>
          17 0 4 1 2.</_></rects>
      <tilted>0</tilted></_>
    <_>
      <rects>
        <_>
          13 2 2 20 -1.</_>
        <_>
          14 2 1 20 2.</_></rects>
      <tilted>0</tilted></_>
    <_>
      <rects>
        <_>
          13 14 2 2 -1.</_>
        <_>
          13 14 1 1 2.</_>
        <_>
          14 15 1 1 2.</_></rects>
      <tilted>0</tilted></_>
    <_>
      <rects>
        <_>
          14 0 12 1 -1.</_>
        <_>
          18 0 4 1 3.</_></rects>
      <tilted>0</tilted></_>
    <_>
      <rects>
        <_>
          14 1 4 16 -1.</_>
        <_>
          14 1 2 8 2.</_>
        <_>
          16 9 2 8 2.</_></rects>
      <tilted>0</tilted></_>
    <_>
      <rects>
        <_>
          14 10 7 3 -1.</_>
        <_>
          14 11 7 1 3.</_></rects>
      <tilted>0</tilted></_>
    <_>
      <rects>
        <_>
          14 17 8 2 -1.</_>
        <_>
          14 17 4 1 2.</_>
        <_>
          18 18 4 1 2.</_></rects>
      <tilted>0</tilted></_>
    <_>
      <rects>
        <_>
          14 24 6 8 -1.</_>
        <_>
          16 24 2 8 3.</_></rects>
      <tilted>0</tilted></_>
    <_>
      <rects>
        <_>
          14 31 9 1 -1.</_>
        <_>
          17 31 3 1 3.</_></rects>
      <tilted>0</tilted></_>
    <_>
      <rects>
        <_>
          15 0 5 8 -1.</_>
        <_>
          15 4 5 4 2.</_></rects>
      <tilted>0</tilted></_>
    <_>
      <rects>
        <_>
          15 0 9 2 -1.</_>
        <_>
          15 1 9 1 2.</_></rects>
      <tilted>0</tilted></_>
    <_>
      <rects>
        <_>
          15 23 11 3 -1.</_>
        <_>
          15 24 11 1 3.</_></rects>
      <tilted>0</tilted></_>
    <_>
      <rects>
        <_>
          15 24 2 5 -1.</_>
        <_>
          16 24 1 5 2.</_></rects>
      <tilted>0</tilted></_>
    <_>
      <rects>
        <_>
          15 25 6 2 -1.</_>
        <_>
          17 25 2 2 3.</_></rects>
      <tilted>0</tilted></_>
    <_>
      <rects>
        <_>
          15 26 3 4 -1.</_>
        <_>
          16 26 1 4 3.</_></rects>
      <tilted>0</tilted></_>
    <_>
      <rects>
        <_>
          16 0 10 2 -1.</_>
        <_>
          16 0 5 1 2.</_>
        <_>
          21 1 5 1 2.</_></rects>
      <tilted>0</tilted></_>
    <_>
      <rects>
        <_>
          16 7 3 3 -1.</_>
        <_>
          17 7 1 3 3.</_></rects>
      <tilted>0</tilted></_>
    <_>
      <rects>
        <_>
          16 10 1 6 -1.</_>
        <_>
          16 12 1 2 3.</_></rects>
      <tilted>0</tilted></_>
    <_>
      <rects>
        <_>
          16 15 5 4 -1.</_>
        <_>
          16 17 5 2 2.</_></rects>
      <tilted>0</tilted></_>
    <_>
      <rects>
        <_>
          16 17 8 2 -1.</_>
        <_>
          16 17 4 1 2.</_>
        <_>
          20 18 4 1 2.</_></rects>
      <tilted>0</tilted></_>
    <_>
      <rects>
        <_>
          17 0 2 12 -1.</_>
        <_>
          17 4 2 4 3.</_></rects>
      <tilted>0</tilted></_>
    <_>
      <rects>
        <_>
          17 1 8 10 -1.</_>
        <_>
          17 1 4 5 2.</_>
        <_>
          21 6 4 5 2.</_></rects>
      <tilted>0</tilted></_>
    <_>
      <rects>
        <_>
          17 2 10 4 -1.</_>
        <_>
          17 2 5 2 2.</_>
        <_>
          22 4 5 2 2.</_></rects>
      <tilted>0</tilted></_>
    <_>
      <rects>
        <_>
          17 3 2 19 -1.</_>
        <_>
          18 3 1 19 2.</_></rects>
      <tilted>0</tilted></_>
    <_>
      <rects>
        <_>
          17 14 15 3 -1.</_>
        <_>
          17 15 15 1 3.</_></rects>
      <tilted>0</tilted></_>
    <_>
      <rects>
        <_>
          18 0 2 5 -1.</_>
        <_>
          19 0 1 5 2.</_></rects>
      <tilted>0</tilted></_>
    <_>
      <rects>
        <_>
          18 7 2 1 -1.</_>
        <_>
          19 7 1 1 2.</_></rects>
      <tilted>0</tilted></_>
    <_>
      <rects>
        <_>
          18 9 8 4 -1.</_>
        <_>
          18 9 4 2 2.</_>
        <_>
          22 11 4 2 2.</_></rects>
      <tilted>0</tilted></_>
    <_>
      <rects>
        <_>
          18 14 6 9 -1.</_>
        <_>
          20 14 2 9 3.</_></rects>
      <tilted>0</tilted></_>
    <_>
      <rects>
        <_>
          18 20 6 1 -1.</_>
        <_>
          20 20 2 1 3.</_></rects>
      <tilted>0</tilted></_>
    <_>
      <rects>
        <_>
          19 2 6 8 -1.</_>
        <_>
          19 2 3 4 2.</_>
        <_>
          22 6 3 4 2.</_></rects>
      <tilted>0</tilted></_>
    <_>
      <rects>
        <_>
          19 3 2 9 -1.</_>
        <_>
          20 3 1 9 2.</_></rects>
      <tilted>0</tilted></_>
    <_>
      <rects>
        <_>
          19 4 3 15 -1.</_>
        <_>
          20 4 1 15 3.</_></rects>
      <tilted>0</tilted></_>
    <_>
      <rects>
        <_>
          19 10 9 3 -1.</_>
        <_>
          22 10 3 3 3.</_></rects>
      <tilted>0</tilted></_>
    <_>
      <rects>
        <_>
          20 4 1 12 -1.</_>
        <_>
          20 8 1 4 3.</_></rects>
      <tilted>0</tilted></_>
    <_>
      <rects>
        <_>
          20 5 12 20 -1.</_>
        <_>
          26 5 6 20 2.</_></rects>
      <tilted>0</tilted></_>
    <_>
      <rects>
        <_>
          20 6 6 6 -1.</_>
        <_>
          22 6 2 6 3.</_></rects>
      <tilted>0</tilted></_>
    <_>
      <rects>
        <_>
          20 15 4 10 -1.</_>
        <_>
          20 15 2 5 2.</_>
        <_>
          22 20 2 5 2.</_></rects>
      <tilted>0</tilted></_>
    <_>
      <rects>
        <_>
          20 26 2 2 -1.</_>
        <_>
          20 26 1 1 2.</_>
        <_>
          21 27 1 1 2.</_></rects>
      <tilted>0</tilted></_>
    <_>
      <rects>
        <_>
          21 7 6 1 -1.</_>
        <_>
          23 7 2 1 3.</_></rects>
      <tilted>0</tilted></_>
    <_>
      <rects>
        <_>
          21 17 3 1 -1.</_>
        <_>
          22 17 1 1 3.</_></rects>
      <tilted>0</tilted></_>
    <_>
      <rects>
        <_>
          21 19 6 4 -1.</_>
        <_>
          21 19 3 2 2.</_>
        <_>
          24 21 3 2 2.</_></rects>
      <tilted>0</tilted></_>
    <_>
      <rects>
        <_>
          22 1 10 14 -1.</_>
        <_>
          27 1 5 14 2.</_></rects>
      <tilted>0</tilted></_>
    <_>
      <rects>
        <_>
          22 5 4 7 -1.</_>
        <_>
          24 5 2 7 2.</_></rects>
      <tilted>0</tilted></_>
    <_>
      <rects>
        <_>
          22 6 3 20 -1.</_>
        <_>
          23 6 1 20 3.</_></rects>
      <tilted>0</tilted></_>
    <_>
      <rects>
        <_>
          22 7 2 3 -1.</_>
        <_>
          23 7 1 3 2.</_></rects>
      <tilted>0</tilted></_>
    <_>
      <rects>
        <_>
          22 12 3 3 -1.</_>
        <_>
          23 12 1 3 3.</_></rects>
      <tilted>0</tilted></_>
    <_>
      <rects>
        <_>
          22 19 3 1 -1.</_>
        <_>
          23 19 1 1 3.</_></rects>
      <tilted>0</tilted></_>
    <_>
      <rects>
        <_>
          22 23 2 2 -1.</_>
        <_>
          22 23 1 1 2.</_>
        <_>
          23 24 1 1 2.</_></rects>
      <tilted>0</tilted></_>
    <_>
      <rects>
        <_>
          23 1 1 3 -1.</_>
        <_>
          23 2 1 1 3.</_></rects>
      <tilted>0</tilted></_>
    <_>
      <rects>
        <_>
          23 5 9 24 -1.</_>
        <_>
          23 13 9 8 3.</_></rects>
      <tilted>0</tilted></_>
    <_>
      <rects>
        <_>
          23 8 4 3 -1.</_>
        <_>
          25 8 2 3 2.</_></rects>
      <tilted>0</tilted></_>
    <_>
      <rects>
        <_>
          23 19 6 4 -1.</_>
        <_>
          25 19 2 4 3.</_></rects>
      <tilted>0</tilted></_>
    <_>
      <rects>
        <_>
          23 20 6 12 -1.</_>
        <_>
          26 20 3 12 2.</_></rects>
      <tilted>0</tilted></_>
    <_>
      <rects>
        <_>
          25 13 3 8 -1.</_>
        <_>
          25 17 3 4 2.</_></rects>
      <tilted>0</tilted></_>
    <_>
      <rects>
        <_>
          25 22 3 3 -1.</_>
        <_>
          25 23 3 1 3.</_></rects>
      <tilted>0</tilted></_>
    <_>
      <rects>
        <_>
          26 1 2 5 -1.</_>
        <_>
          27 1 1 5 2.</_></rects>
      <tilted>0</tilted></_>
    <_>
      <rects>
        <_>
          26 16 3 3 -1.</_>
        <_>
          26 17 3 1 3.</_></rects>
      <tilted>0</tilted></_>
    <_>
      <rects>
        <_>
          26 19 6 9 -1.</_>
        <_>
          26 22 6 3 3.</_></rects>
      <tilted>0</tilted></_>
    <_>
      <rects>
        <_>
          27 6 2 2 -1.</_>
        <_>
          27 6 1 1 2.</_>
        <_>
          28 7 1 1 2.</_></rects>
      <tilted>0</tilted></_>
    <_>
      <rects>
        <_>
          27 10 3 2 -1.</_>
        <_>
          28 10 1 2 3.</_></rects>
      <tilted>0</tilted></_>
    <_>
      <rects>
        <_>
          28 1 2 8 -1.</_>
        <_>
          28 1 1 4 2.</_>
        <_>
          29 5 1 4 2.</_></rects>
      <tilted>0</tilted></_>
    <_>
      <rects>
        <_>
          28 6 2 2 -1.</_>
        <_>
          28 6 1 1 2.</_>
        <_>
          29 7 1 1 2.</_></rects>
      <tilted>0</tilted></_>
    <_>
      <rects>
        <_>
          29 10 3 6 -1.</_>
        <_>
          29 12 3 2 3.</_></rects>
      <tilted>0</tilted></_>
    <_>
      <rects>
        <_>
          29 15 3 6 -1.</_>
        <_>
          29 17 3 2 3.</_></rects>
      <tilted>0</tilted></_>
    <_>
      <rects>
        <_>
          30 1 1 2 -1.</_>
        <_>
          30 2 1 1 2.</_></rects>
      <tilted>0</tilted></_>
    <_>
      <rects>
        <_>
          30 1 2 18 -1.</_>
        <_>
          30 7 2 6 3.</_></rects>
      <tilted>0</tilted></_>
    <_>
      <rects>
        <_>
          30 13 2 8 -1.</_>
        <_>
          30 13 1 4 2.</_>
        <_>
          31 17 1 4 2.</_></rects>
      <tilted>0</tilted></_>
    <_>
      <rects>
        <_>
          31 25 1 2 -1.</_>
        <_>
          31 26 1 1 2.</_></rects>
      <tilted>0</tilted></_>
    <_>
      <rects>
        <_>
          31 28 1 4 -1.</_>
        <_>
          31 30 1 2 2.</_></rects>
      <tilted>0</tilted></_></features></cascade>
</opencv_storage>
