<?xml version="1.0"?>
<opencv_storage>
<stage16>
  <maxWeakCount>7</maxWeakCount>
  <stageThreshold>-2.2622570991516113e+00</stageThreshold>
  <weakClassifiers>
    <_>
      <internalNodes>
        0 -1 393895 -1.6227355226874352e-03</internalNodes>
      <leafValues>
        1. -8.5356813669204712e-01</leafValues></_>
    <_>
      <internalNodes>
        0 -1 476302 -3.1261860858649015e-03</internalNodes>
      <leafValues>
        7.9303610324859619e-01 -5.1663190126419067e-01</leafValues></_>
    <_>
      <internalNodes>
        0 -1 361700 -2.6593951042741537e-04</internalNodes>
      <leafValues>
        -5.7087761163711548e-01 3.2523268461227417e-01</leafValues></_>
    <_>
      <internalNodes>
        0 -1 411671 9.6713774837553501e-04</internalNodes>
      <leafValues>
        -2.4070487916469574e-01 9.1221439838409424e-01</leafValues></_>
    <_>
      <internalNodes>
        0 -1 491013 -1.2525927741080523e-04</internalNodes>
      <leafValues>
        -5.3158444166183472e-01 3.5653844475746155e-01</leafValues></_>
    <_>
      <internalNodes>
        0 -1 380557 5.7028017181437463e-05</internalNodes>
      <leafValues>
        -2.9954528808593750e-01 6.8425929546356201e-01</leafValues></_>
    <_>
      <internalNodes>
        0 -1 441567 4.3774447403848171e-03</internalNodes>
      <leafValues>
        -2.3314951360225677e-01 9.4947147369384766e-01</leafValues></_></weakClassifiers></stage16>
</opencv_storage>
