<?xml version="1.0"?>
<opencv_storage>
<stage5>
  <maxWeakCount>10</maxWeakCount>
  <stageThreshold>-1.9101371765136719e+00</stageThreshold>
  <weakClassifiers>
    <_>
      <internalNodes>
        0 -1 463221 3.6230953410267830e-03</internalNodes>
      <leafValues>
        -8.4088808298110962e-01 4.7368422150611877e-01</leafValues></_>
    <_>
      <internalNodes>
        0 -1 472950 8.9251454919576645e-03</internalNodes>
      <leafValues>
        -4.5776042342185974e-01 6.9896966218948364e-01</leafValues></_>
    <_>
      <internalNodes>
        0 -1 507407 -4.5527747715823352e-05</internalNodes>
      <leafValues>
        -4.8603001236915588e-01 2.2499285638332367e-01</leafValues></_>
    <_>
      <internalNodes>
        0 -1 426843 8.6757428944110870e-03</internalNodes>
      <leafValues>
        -1.8141777813434601e-01 6.8437612056732178e-01</leafValues></_>
    <_>
      <internalNodes>
        0 -1 115806 -5.7754372246563435e-03</internalNodes>
      <leafValues>
        5.4114711284637451e-01 -2.0542968809604645e-01</leafValues></_>
    <_>
      <internalNodes>
        0 -1 501961 -1.8547143554314971e-05</internalNodes>
      <leafValues>
        -4.8416998982429504e-01 2.3773840069770813e-01</leafValues></_>
    <_>
      <internalNodes>
        0 -1 380992 -5.9512240113690495e-04</internalNodes>
      <leafValues>
        4.6880236268043518e-01 -2.3488979041576385e-01</leafValues></_>
    <_>
      <internalNodes>
        0 -1 245996 -1.8342672847211361e-03</internalNodes>
      <leafValues>
        -6.5569460391998291e-01 1.7395193874835968e-01</leafValues></_>
    <_>
      <internalNodes>
        0 -1 509132 -9.3059818027541041e-05</internalNodes>
      <leafValues>
        -5.4336220026016235e-01 2.1011330187320709e-01</leafValues></_>
    <_>
      <internalNodes>
        0 -1 467535 3.2515043858438730e-04</internalNodes>
      <leafValues>
        -2.2695788741111755e-01 5.5647164583206177e-01</leafValues></_></weakClassifiers></stage5>
</opencv_storage>
