<?xml version="1.0"?>
<opencv_storage>
<stage14>
  <maxWeakCount>9</maxWeakCount>
  <stageThreshold>-1.6234391927719116e+00</stageThreshold>
  <weakClassifiers>
    <_>
      <internalNodes>
        0 -1 253563 -5.6895827874541283e-03</internalNodes>
      <leafValues>
        1. -8.3486241102218628e-01</leafValues></_>
    <_>
      <internalNodes>
        0 -1 59138 -3.9826598949730396e-03</internalNodes>
      <leafValues>
        -5.3332958370447159e-02 -6.5433388948440552e-01</leafValues></_>
    <_>
      <internalNodes>
        0 -1 457844 -1.2285029515624046e-03</internalNodes>
      <leafValues>
        3.8919615745544434e-01 -2.6211526989936829e-01</leafValues></_>
    <_>
      <internalNodes>
        0 -1 7804 2.9053766280412674e-02</internalNodes>
      <leafValues>
        -2.3490466177463531e-01 4.6146693825721741e-01</leafValues></_>
    <_>
      <internalNodes>
        0 -1 172927 -2.5271193590015173e-04</internalNodes>
      <leafValues>
        -5.3500384092330933e-01 2.0195145905017853e-01</leafValues></_>
    <_>
      <internalNodes>
        0 -1 365481 1.1181215086253360e-05</internalNodes>
      <leafValues>
        -3.2183912396430969e-01 3.2745039463043213e-01</leafValues></_>
    <_>
      <internalNodes>
        0 -1 207751 -3.4197787754237652e-03</internalNodes>
      <leafValues>
        4.4392332434654236e-01 -2.6191663742065430e-01</leafValues></_>
    <_>
      <internalNodes>
        0 -1 318944 4.3444819748401642e-02</internalNodes>
      <leafValues>
        -2.1983307600021362e-01 4.7775509953498840e-01</leafValues></_>
    <_>
      <internalNodes>
        0 -1 423265 1.0211763437837362e-03</internalNodes>
      <leafValues>
        -2.0023226737976074e-01 5.6224071979522705e-01</leafValues></_></weakClassifiers></stage14>
</opencv_storage>
