<?xml version="1.0"?>
<opencv_storage>
<stage9>
  <maxWeakCount>8</maxWeakCount>
  <stageThreshold>-1.5284868478775024e+00</stageThreshold>
  <weakClassifiers>
    <_>
      <internalNodes>
        0 -1 67539 -4.6465411782264709e-02</internalNodes>
      <leafValues>
        6.2500000000000000e-02 -8.4456926584243774e-01</leafValues></_>
    <_>
      <internalNodes>
        0 -1 460459 6.1679795384407043e-02</internalNodes>
      <leafValues>
        -4.6996510028839111e-01 2.3775179684162140e-01</leafValues></_>
    <_>
      <internalNodes>
        0 -1 91011 -1.8553570844233036e-03</internalNodes>
      <leafValues>
        -6.7849582433700562e-01 1.0123648494482040e-01</leafValues></_>
    <_>
      <internalNodes>
        0 -1 245726 -4.5278345351107419e-04</internalNodes>
      <leafValues>
        -7.4776458740234375e-01 9.3650862574577332e-02</leafValues></_>
    <_>
      <internalNodes>
        0 -1 39474 -1.4575657248497009e-01</internalNodes>
      <leafValues>
        -1. 1.1502679437398911e-01</leafValues></_>
    <_>
      <internalNodes>
        0 -1 301060 -2.3620249703526497e-02</internalNodes>
      <leafValues>
        4.4283083081245422e-01 -2.5148057937622070e-01</leafValues></_>
    <_>
      <internalNodes>
        0 -1 254283 3.9319112896919250e-02</internalNodes>
      <leafValues>
        -3.1534665822982788e-01 2.8708621859550476e-01</leafValues></_>
    <_>
      <internalNodes>
        0 -1 35020 5.4144875321071595e-05</internalNodes>
      <leafValues>
        1.9006471335887909e-01 -5.1058214902877808e-01</leafValues></_></weakClassifiers></stage9>
</opencv_storage>
