<?xml version="1.0"?>
<opencv_storage>
<stage7>
  <maxWeakCount>9</maxWeakCount>
  <stageThreshold>-1.9449275732040405e+00</stageThreshold>
  <weakClassifiers>
    <_>
      <internalNodes>
        0 -1 268295 -2.9561028350144625e-03</internalNodes>
      <leafValues>
        9.0909093618392944e-02 -8.4629803895950317e-01</leafValues></_>
    <_>
      <internalNodes>
        0 -1 294756 1.6354242339730263e-02</internalNodes>
      <leafValues>
        -5.8072388172149658e-01 1.9600898027420044e-02</leafValues></_>
    <_>
      <internalNodes>
        0 -1 120702 -7.6074960816185921e-05</internalNodes>
      <leafValues>
        -4.6961158514022827e-01 2.2987884283065796e-01</leafValues></_>
    <_>
      <internalNodes>
        0 -1 21453 8.2159000157844275e-05</internalNodes>
      <leafValues>
        1.6955286264419556e-01 -5.5524933338165283e-01</leafValues></_>
    <_>
      <internalNodes>
        0 -1 448874 -1.4405915862880647e-05</internalNodes>
      <leafValues>
        3.5624364018440247e-01 -3.3053636550903320e-01</leafValues></_>
    <_>
      <internalNodes>
        0 -1 508166 -1.7370752175338566e-05</internalNodes>
      <leafValues>
        -5.5675774812698364e-01 1.8632565438747406e-01</leafValues></_>
    <_>
      <internalNodes>
        0 -1 209035 -2.8820440638810396e-04</internalNodes>
      <leafValues>
        3.3065041899681091e-01 -3.1271475553512573e-01</leafValues></_>
    <_>
      <internalNodes>
        0 -1 431762 8.2301422953605652e-03</internalNodes>
      <leafValues>
        -1.8177896738052368e-01 5.6330335140228271e-01</leafValues></_>
    <_>
      <internalNodes>
        0 -1 191940 -1.0508574545383453e-02</internalNodes>
      <leafValues>
        3.6684015393257141e-01 -2.6592245697975159e-01</leafValues></_></weakClassifiers></stage7>
</opencv_storage>
