<?xml version="1.0"?>
<opencv_storage>
<stage17>
  <maxWeakCount>5</maxWeakCount>
  <stageThreshold>-1.4818830490112305e+00</stageThreshold>
  <weakClassifiers>
    <_>
      <internalNodes>
        0 -1 348009 2.7603228227235377e-04</internalNodes>
      <leafValues>
        -8.9214760065078735e-01 1.</leafValues></_>
    <_>
      <internalNodes>
        0 -1 453325 -2.0784009248018265e-03</internalNodes>
      <leafValues>
        1. -6.4691233634948730e-01</leafValues></_>
    <_>
      <internalNodes>
        0 -1 87318 -4.4996626675128937e-03</internalNodes>
      <leafValues>
        -7.3601430654525757e-01 3.9248147606849670e-01</leafValues></_>
    <_>
      <internalNodes>
        0 -1 194896 7.1991323493421078e-03</internalNodes>
      <leafValues>
        3.1343987584114075e-01 -9.1685760021209717e-01</leafValues></_>
    <_>
      <internalNodes>
        0 -1 496121 -3.6301229556556791e-05</internalNodes>
      <leafValues>
        -6.2403494119644165e-01 4.7975128889083862e-01</leafValues></_></weakClassifiers></stage17>
</opencv_storage>
