<?xml version="1.0"?>
<opencv_storage>
<stage6>
  <maxWeakCount>8</maxWeakCount>
  <stageThreshold>-1.9940286874771118e+00</stageThreshold>
  <weakClassifiers>
    <_>
      <internalNodes>
        0 -1 174911 4.6011991798877716e-02</internalNodes>
      <leafValues>
        -8.5618406534194946e-01 -1.2280701845884323e-01</leafValues></_>
    <_>
      <internalNodes>
        0 -1 211907 1.0511027649044991e-03</internalNodes>
      <leafValues>
        -4.9087712168693542e-01 3.4598749876022339e-01</leafValues></_>
    <_>
      <internalNodes>
        0 -1 2063 1.4627913944423199e-02</internalNodes>
      <leafValues>
        9.2238724231719971e-02 -8.1704670190811157e-01</leafValues></_>
    <_>
      <internalNodes>
        0 -1 491959 2.0637836132664233e-04</internalNodes>
      <leafValues>
        2.3588676750659943e-01 -5.3438323736190796e-01</leafValues></_>
    <_>
      <internalNodes>
        0 -1 212653 4.6376243233680725e-02</internalNodes>
      <leafValues>
        -2.7747565507888794e-01 5.1202464103698730e-01</leafValues></_>
    <_>
      <internalNodes>
        0 -1 123925 -1.8253152666147798e-04</internalNodes>
      <leafValues>
        -4.7147962450981140e-01 2.4823357164859772e-01</leafValues></_>
    <_>
      <internalNodes>
        0 -1 122310 2.1535347332246602e-04</internalNodes>
      <leafValues>
        1.3418699800968170e-01 -7.9537904262542725e-01</leafValues></_>
    <_>
      <internalNodes>
        0 -1 365931 -8.1266164779663086e-03</internalNodes>
      <leafValues>
        3.1991484761238098e-01 -3.6032468080520630e-01</leafValues></_></weakClassifiers></stage6>
</opencv_storage>
