<?xml version="1.0"?>
<opencv_storage>
<stage2>
  <maxWeakCount>8</maxWeakCount>
  <stageThreshold>-1.5972001552581787e+00</stageThreshold>
  <weakClassifiers>
    <_>
      <internalNodes>
        0 -1 37529 -7.7352754771709442e-02</internalNodes>
      <leafValues>
        3.3333334326744080e-01 -8.6050897836685181e-01</leafValues></_>
    <_>
      <internalNodes>
        0 -1 397332 -8.9483838528394699e-03</internalNodes>
      <leafValues>
        1.9778579473495483e-01 -5.8474946022033691e-01</leafValues></_>
    <_>
      <internalNodes>
        0 -1 2 4.8463101848028600e-05</internalNodes>
      <leafValues>
        1.4048229157924652e-01 -7.3265546560287476e-01</leafValues></_>
    <_>
      <internalNodes>
        0 -1 298550 6.2700931448489428e-04</internalNodes>
      <leafValues>
        -3.4899073839187622e-01 3.7057378888130188e-01</leafValues></_>
    <_>
      <internalNodes>
        0 -1 155583 -1.1260647326707840e-02</internalNodes>
      <leafValues>
        5.1502251625061035e-01 -2.7277481555938721e-01</leafValues></_>
    <_>
      <internalNodes>
        0 -1 186284 6.8718837574124336e-03</internalNodes>
      <leafValues>
        -2.3362344503402710e-01 5.5343395471572876e-01</leafValues></_>
    <_>
      <internalNodes>
        0 -1 173819 -1.8463283777236938e-03</internalNodes>
      <leafValues>
        5.9293961524963379e-01 -2.2947525978088379e-01</leafValues></_>
    <_>
      <internalNodes>
        0 -1 61337 1.9562102854251862e-02</internalNodes>
      <leafValues>
        1.6347815096378326e-01 -9.3216896057128906e-01</leafValues></_></weakClassifiers></stage2>
</opencv_storage>
